-1.971094869077205658e-02
-2.415319718420505524e-02
-3.969711717218160629e-03
-8.417914062738418579e-02
-8.463121950626373291e-02
-8.811517618596553802e-03
3.536353178787976503e-04
-9.127340279519557953e-03
-1.290293689817190170e-02
2.272178232669830322e-02
-2.521776780486106873e-02
2.679586224257946014e-02
-3.241036459803581238e-02
5.668932572007179260e-03
6.685649603605270386e-02
-5.219399929046630859e-02
1.203311309218406677e-01
5.949171027168631554e-04
7.521584630012512207e-02
6.783980131149291992e-02
6.538566201925277710e-02
0.000000000000000000e+00
8.716610074043273926e-02
6.584627553820610046e-03
-5.260159820318222046e-02
-1.175838150084018707e-02
0.000000000000000000e+00
1.135796701419167221e-04
-1.412710733711719513e-02
4.103892669081687927e-02
-1.070043724030256271e-02
-1.066805794835090637e-01
-3.333365544676780701e-03
7.692224532365798950e-02
-3.376884851604700089e-03
2.542278356850147247e-02
4.791061952710151672e-02
-6.275729276239871979e-03
2.380105294287204742e-02
-8.690422028303146362e-02
