1.195160150527954102e-01
-6.353204138576984406e-03
1.673396036494523287e-04
0.000000000000000000e+00
1.209135130047798157e-01
1.171814724802970886e-01
1.096820086240768433e-01
-2.081168815493583679e-02
-1.352651324123144150e-02
0.000000000000000000e+00
1.164634674787521362e-01
1.144841313362121582e-01
1.101858541369438171e-01
-3.861489938572049141e-03
-3.705535549670457840e-03
-1.841516420245170593e-02
1.131745204329490662e-01
-1.826993562281131744e-02
-2.939231134951114655e-02
-7.614243309944868088e-03
-1.169011835008859634e-02
1.370288580656051636e-01
1.112082600593566895e-01
1.327779740095138550e-01
1.110407784581184387e-01
0.000000000000000000e+00
1.265360265970230103e-01
-7.374110165983438492e-03
0.000000000000000000e+00
-7.072685286402702332e-03
1.170070543885231018e-01
-1.832375861704349518e-02
6.272918730974197388e-02
1.272200196981430054e-01
-1.807073689997196198e-02
1.246983781456947327e-01
-1.289224531501531601e-02
0.000000000000000000e+00
1.121489405632019043e-01
2.199475886300206184e-03
